digraph Tree {
node [shape=box, style="filled, rounded", color="black", fontname=helvetica] ;
edge [fontname=helvetica] ;
0 [label="X[9] <= 5087.65\nentropy = 0.51\nsamples = 32950\nvalue = [29238, 3712]", fillcolor="#e89152"] ;
1 [label="X[1] <= 159.5\nentropy = 0.99\nsamples = 3950\nvalue = [2183, 1767]", fillcolor="#fae7d9"] ;
0 -> 1 [labeldistance=2.5, labelangle=45, headlabel="True"] ;
2 [label="X[1] <= 77.5\nentropy = 0.61\nsamples = 1366\nvalue = [1160, 206]", fillcolor="#ea975c"] ;
1 -> 2 ;
3 [label="entropy = 0.13\nsamples = 320\nvalue = [314, 6]", fillcolor="#e5833d"] ;
2 -> 3 ;
4 [label="entropy = 0.7\nsamples = 1046\nvalue = [846, 200]", fillcolor="#eb9f68"] ;
2 -> 4 ;
5 [label="X[3] <= 16.5\nentropy = 0.97\nsamples = 2584\nvalue = [1023, 1561]", fillcolor="#bbddf6"] ;
1 -> 5 ;
6 [label="entropy = 0.69\nsamples = 760\nvalue = [139, 621]", fillcolor="#65b3eb"] ;
5 -> 6 ;
7 [label="X[1] <= 248.5\nentropy = 1.0\nsamples = 1824\nvalue = [884, 940]", fillcolor="#f3f9fd"] ;
5 -> 7 ;
8 [label="entropy = 0.96\nsamples = 654\nvalue = [406, 248]", fillcolor="#f5ceb2"] ;
7 -> 8 ;
9 [label="entropy = 0.98\nsamples = 1170\nvalue = [478, 692]", fillcolor="#c2e1f7"] ;
7 -> 9 ;
10 [label="X[1] <= 472.5\nentropy = 0.35\nsamples = 29000\nvalue = [27055, 1945]", fillcolor="#e78a47"] ;
0 -> 10 [labeldistance=2.5, labelangle=-45, headlabel="False"] ;
11 [label="X[7] <= -46.65\nentropy = 0.15\nsamples = 25203\nvalue = [24646, 557]", fillcolor="#e6843d"] ;
10 -> 11 ;
12 [label="X[1] <= 93.5\nentropy = 0.64\nsamples = 1896\nvalue = [1586, 310]", fillcolor="#ea9a60"] ;
11 -> 12 ;
13 [label="entropy = 0.11\nsamples = 410\nvalue = [404, 6]", fillcolor="#e5833c"] ;
12 -> 13 ;
14 [label="X[8] <= 1.51\nentropy = 0.73\nsamples = 1486\nvalue = [1182, 304]", fillcolor="#eca16c"] ;
12 -> 14 ;
15 [label="X[8] <= 1.4\nentropy = 0.63\nsamples = 1327\nvalue = [1117, 210]", fillcolor="#ea995e"] ;
14 -> 15 ;
16 [label="X[1] <= 223.0\nentropy = 0.95\nsamples = 187\nvalue = [119, 68]", fillcolor="#f4c9aa"] ;
15 -> 16 ;
17 [label="entropy = 0.47\nsamples = 99\nvalue = [89, 10]", fillcolor="#e88f4f"] ;
16 -> 17 ;
18 [label="entropy = 0.93\nsamples = 88\nvalue = [30, 58]", fillcolor="#9fd0f2"] ;
16 -> 18 ;
19 [label="X[0] <= 59.5\nentropy = 0.54\nsamples = 1140\nvalue = [998, 142]", fillcolor="#e99355"] ;
15 -> 19 ;
20 [label="X[0] <= 30.5\nentropy = 0.49\nsamples = 1090\nvalue = [975, 115]", fillcolor="#e89050"] ;
19 -> 20 ;
21 [label="entropy = 0.87\nsamples = 194\nvalue = [138, 56]", fillcolor="#f0b489"] ;
20 -> 21 ;
22 [label="entropy = 0.35\nsamples = 896\nvalue = [837, 59]", fillcolor="#e78a47"] ;
20 -> 22 ;
23 [label="entropy = 1.0\nsamples = 50\nvalue = [23, 27]", fillcolor="#e2f0fb"] ;
19 -> 23 ;
24 [label="entropy = 0.98\nsamples = 159\nvalue = [65, 94]", fillcolor="#c2e1f7"] ;
14 -> 24 ;
25 [label="X[1] <= 287.5\nentropy = 0.08\nsamples = 23307\nvalue = [23060, 247]", fillcolor="#e5823b"] ;
11 -> 25 ;
26 [label="X[53] <= 0.5\nentropy = 0.04\nsamples = 19369\nvalue = [19277, 92]", fillcolor="#e5823a"] ;
25 -> 26 ;
27 [label="X[8] <= 4.72\nentropy = 0.03\nsamples = 19330\nvalue = [19261, 69]", fillcolor="#e5813a"] ;
26 -> 27 ;
28 [label="X[8] <= 4.21\nentropy = 0.09\nsamples = 5374\nvalue = [5311, 63]", fillcolor="#e5823b"] ;
27 -> 28 ;
29 [label="X[8] <= 1.28\nentropy = 0.07\nsamples = 5337\nvalue = [5289, 48]", fillcolor="#e5823b"] ;
28 -> 29 ;
30 [label="entropy = 0.19\nsamples = 1146\nvalue = [1112, 34]", fillcolor="#e6853f"] ;
29 -> 30 ;
31 [label="entropy = 0.03\nsamples = 4191\nvalue = [4177, 14]", fillcolor="#e5813a"] ;
29 -> 31 ;
32 [label="entropy = 0.97\nsamples = 37\nvalue = [22, 15]", fillcolor="#f7d7c0"] ;
28 -> 32 ;
33 [label="entropy = 0.01\nsamples = 13956\nvalue = [13950, 6]", fillcolor="#e58139"] ;
27 -> 33 ;
34 [label="entropy = 0.98\nsamples = 39\nvalue = [16, 23]", fillcolor="#c3e1f7"] ;
26 -> 34 ;
35 [label="X[6] <= 93.86\nentropy = 0.24\nsamples = 3938\nvalue = [3783, 155]", fillcolor="#e68641"] ;
25 -> 35 ;
36 [label="entropy = 0.38\nsamples = 1635\nvalue = [1513, 122]", fillcolor="#e78b49"] ;
35 -> 36 ;
37 [label="entropy = 0.11\nsamples = 2303\nvalue = [2270, 33]", fillcolor="#e5833c"] ;
35 -> 37 ;
38 [label="X[1] <= 649.5\nentropy = 0.95\nsamples = 3797\nvalue = [2409, 1388]", fillcolor="#f4caab"] ;
10 -> 38 ;
39 [label="X[8] <= 1.39\nentropy = 0.75\nsamples = 1766\nvalue = [1385, 381]", fillcolor="#eca46f"] ;
38 -> 39 ;
40 [label="entropy = 0.97\nsamples = 318\nvalue = [189, 129]", fillcolor="#f7d7c0"] ;
39 -> 40 ;
41 [label="entropy = 0.67\nsamples = 1448\nvalue = [1196, 252]", fillcolor="#ea9c63"] ;
39 -> 41 ;
42 [label="X[1] <= 835.5\nentropy = 1.0\nsamples = 2031\nvalue = [1024, 1007]", fillcolor="#fffdfc"] ;
38 -> 42 ;
43 [label="entropy = 0.97\nsamples = 930\nvalue = [558, 372]", fillcolor="#f6d5bd"] ;
42 -> 43 ;
44 [label="entropy = 0.98\nsamples = 1101\nvalue = [466, 635]", fillcolor="#cae5f8"] ;
42 -> 44 ;
}